<?xml version="1.0"?>
<opencv_storage>
<cascade>
  <stageType>BOOST</stageType>
  <featureType>HAAR</featureType>
  <height>24</height>
  <width>24</width>
  <stageParams>
    <boostType>GAB</boostType>
    <minHitRate>9.9900001287460327e-01</minHitRate>
    <maxFalseAlarm>3.0000001192092896e-01</maxFalseAlarm>
    <weightTrimRate>9.0000000000000002e-01</weightTrimRate>
    <maxDepth>1</maxDepth>
    <maxWeakCount>100</maxWeakCount></stageParams>
  <featureParams>
    <maxCatCount>0</maxCatCount>
    <featSize>1</featSize>
    <mode>BASIC</mode></featureParams>
  <stageNum>13</stageNum>
  <stages>
    <!-- stage 0 -->
    <_>
      <maxWeakCount>10</maxWeakCount>
      <stageThreshold>-2.5242060422897339e-01</stageThreshold>
      <weakClassifiers>
        <_>
          <internalNodes>
            0 -1 50 2.0105373114347458e-02</internalNodes>
          <leafValues>
            -3.6326530575752258e-01 7.7702701091766357e-01</leafValues></_>
        <_>
          <internalNodes>
            0 -1 107 -7.5075021013617516e-03</internalNodes>
          <leafValues>
            7.2045260667800903e-01 -2.6557049155235291e-01</leafValues></_>
        <_>
          <internalNodes>
            0 -1 4 -3.6185976117849350e-02</internalNodes>
          <leafValues>
            5.6172394752502441e-01 -3.9350521564483643e-01</leafValues></_>
        <_>
          <internalNodes>
            0 -1 58 9.3710713554173708e-04</internalNodes>
          <leafValues>
            -3.7118762731552124e-01 5.1439762115478516e-01</leafValues></_>
        <_>
          <internalNodes>
            0 -1 103 3.6152070970274508e-04</internalNodes>
          <leafValues>
            -4.5483914017677307e-01 4.5307412743568420e-01</leafValues></_>
        <_>
          <internalNodes>
            0 -1 124 -9.2755339574068785e-04</internalNodes>
          <leafValues>
            7.0356327295303345e-01 -2.3433671891689301e-01</leafValues></_>
        <_>
          <internalNodes>
            0 -1 60 2.7292007580399513e-03</internalNodes>
          <leafValues>
            -1.9114495813846588e-01 9.3017286062240601e-01</leafValues></_>
        <_>
          <internalNodes>
            0 -1 30 -1.5253961086273193e-02</internalNodes>
          <leafValues>
            9.1880017518997192e-01 -1.9029583036899567e-01</leafValues></_>
        <_>
          <internalNodes>
            0 -1 119 -3.5275858826935291e-03</internalNodes>
          <leafValues>
            6.0376328229904175e-01 -3.3983045816421509e-01</leafValues></_>
        <_>
          <internalNodes>
            0 -1 43 8.5513181984424591e-03</internalNodes>
          <leafValues>
            -2.1552388370037079e-01 9.4541770219802856e-01</leafValues></_></weakClassifiers></_>
    <!-- stage 1 -->
    <_>
      <maxWeakCount>10</maxWeakCount>
      <stageThreshold>-3.9656352996826172e-01</stageThreshold>
      <weakClassifiers>
        <_>
          <internalNodes>
            0 -1 81 6.6591305658221245e-03</internalNodes>
          <leafValues>
            -2.2033898532390594e-01 6.3278687000274658e-01</leafValues></_>
        <_>
          <internalNodes>
            0 -1 1 1.6055831313133240e-01</internalNodes>
          <leafValues>
            2.2044730186462402e-01 -9.0691006183624268e-01</leafValues></_>
        <_>
          <internalNodes>
            0 -1 49 -2.5891410186886787e-03</internalNodes>
          <leafValues>
            7.4906790256500244e-01 -2.4521990120410919e-01</leafValues></_>
        <_>
          <internalNodes>
            0 -1 62 3.3824855927377939e-03</internalNodes>
          <leafValues>
            -3.7473529577255249e-01 7.6848590373992920e-01</leafValues></_>
        <_>
          <internalNodes>
            0 -1 121 -1.3654193840920925e-02</internalNodes>
          <leafValues>
            7.5373882055282593e-01 -1.5505094826221466e-01</leafValues></_>
        <_>
          <internalNodes>
            0 -1 132 2.6447759009897709e-03</internalNodes>
          <leafValues>
            -2.4023492634296417e-01 7.4595481157302856e-01</leafValues></_>
        <_>
          <internalNodes>
            0 -1 36 -5.3119890391826630e-02</internalNodes>
          <leafValues>
            6.0761213302612305e-01 -2.0513162016868591e-01</leafValues></_>
        <_>
          <internalNodes>
            0 -1 76 4.2332068085670471e-02</internalNodes>
          <leafValues>
            -2.4737061560153961e-01 8.3751368522644043e-01</leafValues></_>
        <_>
          <internalNodes>
            0 -1 12 -1.6585959121584892e-02</internalNodes>
          <leafValues>
            6.7252147197723389e-01 -1.9905626773834229e-01</leafValues></_>
        <_>
          <internalNodes>
            0 -1 61 -7.7439658343791962e-03</internalNodes>
          <leafValues>
            4.5738399028778076e-01 -3.8542732596397400e-01</leafValues></_></weakClassifiers></_>
    <!-- stage 2 -->
    <_>
      <maxWeakCount>10</maxWeakCount>
      <stageThreshold>-4.0717783570289612e-01</stageThreshold>
      <weakClassifiers>
        <_>
          <internalNodes>
            0 -1 90 6.3583135604858398e-02</internalNodes>
          <leafValues>
            -1.5087719261646271e-01 7.1875000000000000e-01</leafValues></_>
        <_>
          <internalNodes>
            0 -1 2 -2.8204098343849182e-02</internalNodes>
          <leafValues>
            6.1262452602386475e-01 -2.0869427919387817e-01</leafValues></_>
        <_>
          <internalNodes>
            0 -1 22 2.4262394756078720e-02</internalNodes>
          <leafValues>
            -2.8050345182418823e-01 6.6514927148818970e-01</leafValues></_>
        <_>
          <internalNodes>
            0 -1 19 3.1949236989021301e-02</internalNodes>
          <leafValues>
            -1.8277043104171753e-01 6.9475531578063965e-01</leafValues></_>
        <_>
          <internalNodes>
            0 -1 38 -6.6255605779588223e-03</internalNodes>
          <leafValues>
            5.1553875207901001e-01 -3.5089078545570374e-01</leafValues></_>
        <_>
          <internalNodes>
            0 -1 69 -1.2050544843077660e-02</internalNodes>
          <leafValues>
            6.6029405593872070e-01 -2.6505959033966064e-01</leafValues></_>
        <_>
          <internalNodes>
            0 -1 98 -5.4343953728675842e-02</internalNodes>
          <leafValues>
            -5.6683540344238281e-01 4.4306808710098267e-01</leafValues></_>
        <_>
          <internalNodes>
            0 -1 44 -4.0411512600257993e-04</internalNodes>
          <leafValues>
            5.0840622186660767e-01 -4.0804481506347656e-01</leafValues></_>
        <_>
          <internalNodes>
            0 -1 47 1.9772380590438843e-02</internalNodes>
          <leafValues>
            -2.8616201877593994e-01 5.9710615873336792e-01</leafValues></_>
        <_>
          <internalNodes>
            0 -1 97 -4.8673986457288265e-03</internalNodes>
          <leafValues>
            7.3452496528625488e-01 -3.2363954186439514e-01</leafValues></_></weakClassifiers></_>
    <!-- stage 3 -->
    <_>
      <maxWeakCount>10</maxWeakCount>
      <stageThreshold>-2.1506038308143616e-01</stageThreshold>
      <weakClassifiers>
        <_>
          <internalNodes>
            0 -1 105 5.3094612667337060e-04</internalNodes>
          <leafValues>
            -3.2608696818351746e-01 5.6302523612976074e-01</leafValues></_>
        <_>
          <internalNodes>
            0 -1 72 -2.1804124116897583e-03</internalNodes>
          <leafValues>
            6.0366493463516235e-01 -2.6218500733375549e-01</leafValues></_>
        <_>
          <internalNodes>
            0 -1 116 3.2607659697532654e-02</internalNodes>
          <leafValues>
            -1.7963936924934387e-01 8.1236660480499268e-01</leafValues></_>
        <_>
          <internalNodes>
            0 -1 144 -3.1773797236382961e-03</internalNodes>
          <leafValues>
            7.2167152166366577e-01 -2.9018604755401611e-01</leafValues></_>
        <_>
          <internalNodes>
            0 -1 128 2.9046373674646020e-04</internalNodes>
          <leafValues>
            -3.3631053566932678e-01 5.5080002546310425e-01</leafValues></_>
        <_>
          <internalNodes>
            0 -1 79 1.2302884832024574e-02</internalNodes>
          <leafValues>
            -2.2425615787506104e-01 6.6318172216415405e-01</leafValues></_>
        <_>
          <internalNodes>
            0 -1 3 2.5654729455709457e-02</internalNodes>
          <leafValues>
            -2.6984477043151855e-01 7.3259937763214111e-01</leafValues></_>
        <_>
          <internalNodes>
            0 -1 5 -1.9935031887143850e-03</internalNodes>
          <leafValues>
            7.3335552215576172e-01 -2.9099509119987488e-01</leafValues></_>
        <_>
          <internalNodes>
            0 -1 123 -3.2775939907878637e-03</internalNodes>
          <leafValues>
            5.9270346164703369e-01 -3.1300598382949829e-01</leafValues></_>
        <_>
          <internalNodes>
            0 -1 142 -2.9031984740868211e-04</internalNodes>
          <leafValues>
            5.2248746156692505e-01 -3.4369763731956482e-01</leafValues></_></weakClassifiers></_>
    <!-- stage 4 -->
    <_>
      <maxWeakCount>13</maxWeakCount>
      <stageThreshold>-2.1336472034454346e-01</stageThreshold>
      <weakClassifiers>
        <_>
          <internalNodes>
            0 -1 35 1.6556271910667419e-01</internalNodes>
          <leafValues>
            -1.7557251453399658e-01 6.7025089263916016e-01</leafValues></_>
        <_>
          <internalNodes>
            0 -1 41 -8.0700824037194252e-04</internalNodes>
          <leafValues>
            3.8842782378196716e-01 -3.1905823945999146e-01</leafValues></_>
        <_>
          <internalNodes>
            0 -1 125 -1.6330456361174583e-02</internalNodes>
          <leafValues>
            -8.6216419935226440e-01 1.5538863837718964e-01</leafValues></_>
        <_>
          <internalNodes>
            0 -1 113 -6.0735794249922037e-05</internalNodes>
          <leafValues>
            -4.5355495810508728e-01 2.9470181465148926e-01</leafValues></_>
        <_>
          <internalNodes>
            0 -1 42 -2.5354954414069653e-04</internalNodes>
          <leafValues>
            4.5475953817367554e-01 -3.5156440734863281e-01</leafValues></_>
        <_>
          <internalNodes>
            0 -1 138 5.0955200567841530e-03</internalNodes>
          <leafValues>
            -1.2825974822044373e-01 7.7579319477081299e-01</leafValues></_>
        <_>
          <internalNodes>
            0 -1 26 -1.0372230317443609e-03</internalNodes>
          <leafValues>
            4.2998954653739929e-01 -2.7185592055320740e-01</leafValues></_>
        <_>
          <internalNodes>
            0 -1 6 2.5885593146085739e-02</internalNodes>
          <leafValues>
            3.1765705347061157e-01 -3.8912984728813171e-01</leafValues></_>
        <_>
          <internalNodes>
            0 -1 151 -1.2425746768712997e-02</internalNodes>
          <leafValues>
            5.1232385635375977e-01 -2.3682612180709839e-01</leafValues></_>
        <_>
          <internalNodes>
            0 -1 145 1.9307262846268713e-04</internalNodes>
          <leafValues>
            -3.2340362668037415e-01 4.6526432037353516e-01</leafValues></_>
        <_>
          <internalNodes>
            0 -1 149 3.6491435021162033e-03</internalNodes>
          <leafValues>
            -1.7550048232078552e-01 6.1788356304168701e-01</leafValues></_>
        <_>
          <internalNodes>
            0 -1 37 -4.3965376913547516e-02</internalNodes>
          <leafValues>
            9.1917204856872559e-01 -9.8203100264072418e-02</leafValues></_>
        <_>
          <internalNodes>
            0 -1 14 -8.3924196660518646e-03</internalNodes>
          <leafValues>
            4.9238404631614685e-01 -3.5061076283454895e-01</leafValues></_></weakClassifiers></_>
    <!-- stage 5 -->
    <_>
      <maxWeakCount>13</maxWeakCount>
      <stageThreshold>-2.7662542462348938e-01</stageThreshold>
      <weakClassifiers>
        <_>
          <internalNodes>
            0 -1 34 -2.9409066773951054e-03</internalNodes>
          <leafValues>
            7.2413790225982666e-01 4.0871933102607727e-02</leafValues></_>
        <_>
          <internalNodes>
            0 -1 91 7.2045192122459412e-02</internalNodes>
          <leafValues>
            -1.4312404394149780e-01 6.5942507982254028e-01</leafValues></_>
        <_>
          <internalNodes>
            0 -1 13 -5.6337285786867142e-03</internalNodes>
          <leafValues>
            6.4849126338958740e-01 -1.9249412417411804e-01</leafValues></_>
        <_>
          <internalNodes>
            0 -1 15 5.2549596875905991e-03</internalNodes>
          <leafValues>
            -3.2777929306030273e-01 6.3621872663497925e-01</leafValues></_>
        <_>
          <internalNodes>
            0 -1 129 -3.5794310271739960e-02</internalNodes>
          <leafValues>
            5.5601465702056885e-01 -2.0462484657764435e-01</leafValues></_>
        <_>
          <internalNodes>
            0 -1 40 -1.6908776015043259e-02</internalNodes>
          <leafValues>
            4.4241750240325928e-01 -3.6958882212638855e-01</leafValues></_>
        <_>
          <internalNodes>
            0 -1 46 -1.3047552201896906e-03</internalNodes>
          <leafValues>
            5.9262245893478394e-01 -1.6947066783905029e-01</leafValues></_>
        <_>
          <internalNodes>
            0 -1 7 -1.5123312175273895e-01</internalNodes>
          <leafValues>
            -9.2050516605377197e-01 2.0351557433605194e-01</leafValues></_>
        <_>
          <internalNodes>
            0 -1 18 -7.2294101119041443e-02</internalNodes>
          <leafValues>
            -8.1131637096405029e-01 1.1183647811412811e-01</leafValues></_>
        <_>
          <internalNodes>
            0 -1 68 1.3693289831280708e-02</internalNodes>
          <leafValues>
            -2.3231790959835052e-01 6.1545997858047485e-01</leafValues></_>
        <_>
          <internalNodes>
            0 -1 67 -5.8705140836536884e-03</internalNodes>
          <leafValues>
            5.9793293476104736e-01 -1.9672198593616486e-01</leafValues></_>
        <_>
          <internalNodes>
            0 -1 136 -8.8149768998846412e-04</internalNodes>
          <leafValues>
            6.7910981178283691e-01 -2.2746102511882782e-01</leafValues></_>
        <_>
          <internalNodes>
            0 -1 159 -1.5594490105286241e-03</internalNodes>
          <leafValues>
            7.3841100931167603e-01 -1.2601475417613983e-01</leafValues></_></weakClassifiers></_>
    <!-- stage 6 -->
    <_>
      <maxWeakCount>13</maxWeakCount>
      <stageThreshold>-3.6195909976959229e-01</stageThreshold>
      <weakClassifiers>
        <_>
          <internalNodes>
            0 -1 10 -5.0318695139139891e-04</internalNodes>
          <leafValues>
            5.3066664934158325e-01 -3.4939759969711304e-01</leafValues></_>
        <_>
          <internalNodes>
            0 -1 94 6.7413966171443462e-03</internalNodes>
          <leafValues>
            -2.2103025019168854e-01 4.7983708977699280e-01</leafValues></_>
        <_>
          <internalNodes>
            0 -1 140 -6.1292778700590134e-03</internalNodes>
          <leafValues>
            5.2915048599243164e-01 -2.1859647333621979e-01</leafValues></_>
        <_>
          <internalNodes>
            0 -1 65 -1.0559427551925182e-02</internalNodes>
          <leafValues>
            3.4924170374870300e-01 -3.6401656270027161e-01</leafValues></_>
        <_>
          <internalNodes>
            0 -1 118 4.4414633885025978e-03</internalNodes>
          <leafValues>
            -1.5808001160621643e-01 5.4534125328063965e-01</leafValues></_>
        <_>
          <internalNodes>
            0 -1 101 -4.7349528176710010e-04</internalNodes>
          <leafValues>
            5.4205572605133057e-01 -2.6568183302879333e-01</leafValues></_>
        <_>
          <internalNodes>
            0 -1 28 -2.4920904543250799e-03</internalNodes>
          <leafValues>
            6.1627525091171265e-01 -1.8977726995944977e-01</leafValues></_>
        <_>
          <internalNodes>
            0 -1 108 -7.2794238803908229e-04</internalNodes>
          <leafValues>
            4.1057893633842468e-01 -3.6489197611808777e-01</leafValues></_>
        <_>
          <internalNodes>
            0 -1 158 -1.3634820934385061e-03</internalNodes>
          <leafValues>
            4.5758739113807678e-01 -2.4604208767414093e-01</leafValues></_>
        <_>
          <internalNodes>
            0 -1 71 1.5532614197582006e-03</internalNodes>
          <leafValues>
            -2.9197013378143311e-01 4.9026200175285339e-01</leafValues></_>
        <_>
          <internalNodes>
            0 -1 164 -3.1803335878066719e-04</internalNodes>
          <leafValues>
            6.1365187168121338e-01 -1.9315519928932190e-01</leafValues></_>
        <_>
          <internalNodes>
            0 -1 137 -2.3748340085148811e-02</internalNodes>
          <leafValues>
            5.2289474010467529e-01 -2.3877605795860291e-01</leafValues></_>
        <_>
          <internalNodes>
            0 -1 25 2.6481079403311014e-03</internalNodes>
          <leafValues>
            -1.8510577082633972e-01 7.6215988397598267e-01</leafValues></_></weakClassifiers></_>
    <!-- stage 7 -->
    <_>
      <maxWeakCount>17</maxWeakCount>
      <stageThreshold>-4.3931633234024048e-01</stageThreshold>
      <weakClassifiers>
        <_>
          <internalNodes>
            0 -1 32 6.6078469157218933e-02</internalNodes>
          <leafValues>
            -1.0000000149011612e-01 6.4750957489013672e-01</leafValues></_>
        <_>
          <internalNodes>
            0 -1 34 -8.4510110318660736e-03</internalNodes>
          <leafValues>
            9.0383052825927734e-01 -6.2696725130081177e-02</leafValues></_>
        <_>
          <internalNodes>
            0 -1 63 -3.8939742371439934e-03</internalNodes>
          <leafValues>
            6.4278060197830200e-01 -1.6166618466377258e-01</leafValues></_>
        <_>
          <internalNodes>
            0 -1 0 1.1090937914559618e-04</internalNodes>
          <leafValues>
            2.2672145068645477e-01 -5.2210950851440430e-01</leafValues></_>
        <_>
          <internalNodes>
            0 -1 95 -4.2158910073339939e-03</internalNodes>
          <leafValues>
            4.2335653305053711e-01 -2.3830744624137878e-01</leafValues></_>
        <_>
          <internalNodes>
            0 -1 122 3.6757230758666992e-02</internalNodes>
          <leafValues>
            -1.2276128679513931e-01 7.9644006490707397e-01</leafValues></_>
        <_>
          <internalNodes>
            0 -1 126 -1.7994003370404243e-02</internalNodes>
          <leafValues>
            4.3062418699264526e-01 -2.7955156564712524e-01</leafValues></_>
        <_>
          <internalNodes>
            0 -1 23 -2.5148955173790455e-03</internalNodes>
          <leafValues>
            3.1687149405479431e-01 -3.8927090167999268e-01</leafValues></_>
        <_>
          <internalNodes>
            0 -1 24 4.2750015854835510e-02</internalNodes>
          <leafValues>
            3.8670483231544495e-01 -2.8243717551231384e-01</leafValues></_>
        <_>
          <internalNodes>
            0 -1 88 4.8219431191682816e-03</internalNodes>
          <leafValues>
            1.3712146878242493e-01 -9.1078102588653564e-01</leafValues></_>
        <_>
          <internalNodes>
            0 -1 112 -1.9091718422714621e-04</internalNodes>
          <leafValues>
            3.6932757496833801e-01 -3.1776237487792969e-01</leafValues></_>
        <_>
          <internalNodes>
            0 -1 82 1.4562711119651794e-02</internalNodes>
          <leafValues>
            -4.4795015454292297e-01 3.8023531436920166e-01</leafValues></_>
        <_>
          <internalNodes>
            0 -1 80 -3.4806471318006516e-02</internalNodes>
          <leafValues>
            7.3214191198348999e-01 -2.2527374327182770e-01</leafValues></_>
        <_>
          <internalNodes>
            0 -1 154 -2.2463286295533180e-03</internalNodes>
          <leafValues>
            -8.0896741151809692e-01 2.3121452331542969e-01</leafValues></_>
        <_>
          <internalNodes>
            0 -1 135 -2.3495199275203049e-04</internalNodes>
          <leafValues>
            4.6828806400299072e-01 -3.1331786513328552e-01</leafValues></_>
        <_>
          <internalNodes>
            0 -1 93 9.7140781581401825e-03</internalNodes>
          <leafValues>
            3.2581532001495361e-01 -4.6203157305717468e-01</leafValues></_>
        <_>
          <internalNodes>
            0 -1 102 3.4928969107568264e-03</internalNodes>
          <leafValues>
            2.0552191138267517e-01 -5.6749498844146729e-01</leafValues></_></weakClassifiers></_>
    <!-- stage 8 -->
    <_>
      <maxWeakCount>15</maxWeakCount>
      <stageThreshold>-5.3619658946990967e-01</stageThreshold>
      <weakClassifiers>
        <_>
          <internalNodes>
            0 -1 139 1.8087917938828468e-02</internalNodes>
          <leafValues>
            1.1963882297277451e-01 8.9795917272567749e-01</leafValues></_>
        <_>
          <internalNodes>
            0 -1 11 1.1111564934253693e-02</internalNodes>
          <leafValues>
            -1.5925736725330353e-01 8.4850257635116577e-01</leafValues></_>
        <_>
          <internalNodes>
            0 -1 21 -1.3389176456257701e-03</internalNodes>
          <leafValues>
            5.5661892890930176e-01 -3.1684333086013794e-01</leafValues></_>
        <_>
          <internalNodes>
            0 -1 83 -1.0485980659723282e-02</internalNodes>
          <leafValues>
            5.2782607078552246e-01 -2.0308306813240051e-01</leafValues></_>
        <_>
          <internalNodes>
            0 -1 117 -4.2722530663013458e-02</internalNodes>
          <leafValues>
            5.8948194980621338e-01 -2.1582154929637909e-01</leafValues></_>
        <_>
          <internalNodes>
            0 -1 153 5.5750901810824871e-04</internalNodes>
          <leafValues>
            -2.1079434454441071e-01 5.9146755933761597e-01</leafValues></_>
        <_>
          <internalNodes>
            0 -1 86 1.3169664889574051e-02</internalNodes>
          <leafValues>
            1.9756612181663513e-01 -7.8047519922256470e-01</leafValues></_>
        <_>
          <internalNodes>
            0 -1 59 -3.5404711961746216e-02</internalNodes>
          <leafValues>
            3.7973910570144653e-01 -3.3675736188888550e-01</leafValues></_>
        <_>
          <internalNodes>
            0 -1 148 -1.7605107277631760e-03</internalNodes>
          <leafValues>
            5.9801173210144043e-01 -2.3533144593238831e-01</leafValues></_>
        <_>
          <internalNodes>
            0 -1 70 4.1960598900914192e-03</internalNodes>
          <leafValues>
            3.1266891956329346e-01 -4.5332837104797363e-01</leafValues></_>
        <_>
          <internalNodes>
            0 -1 77 -1.8510202062316239e-04</internalNodes>
          <leafValues>
            3.0153757333755493e-01 -4.0542232990264893e-01</leafValues></_>
        <_>
          <internalNodes>
            0 -1 48 1.0580186732113361e-02</internalNodes>
          <leafValues>
            -1.0743295401334763e-01 8.4365421533584595e-01</leafValues></_>
        <_>
          <internalNodes>
            0 -1 51 1.3348250649869442e-02</internalNodes>
          <leafValues>
            -1.2763988971710205e-01 8.3061218261718750e-01</leafValues></_>
        <_>
          <internalNodes>
            0 -1 143 -1.8013506196439266e-03</internalNodes>
          <leafValues>
            7.5418448448181152e-01 -1.3203743100166321e-01</leafValues></_>
        <_>
          <internalNodes>
            0 -1 131 -3.9190251845866442e-04</internalNodes>
          <leafValues>
            4.3665051460266113e-01 -2.9607155919075012e-01</leafValues></_></weakClassifiers></_>
    <!-- stage 9 -->
    <_>
      <maxWeakCount>14</maxWeakCount>
      <stageThreshold>-3.6088281869888306e-01</stageThreshold>
      <weakClassifiers>
        <_>
          <internalNodes>
            0 -1 111 -9.7842840477824211e-03</internalNodes>
          <leafValues>
            -7.2881358861923218e-01 3.8174274563789368e-01</leafValues></_>
        <_>
          <internalNodes>
            0 -1 39 7.4235901236534119e-02</internalNodes>
          <leafValues>
            -9.0759262442588806e-02 8.7449526786804199e-01</leafValues></_>
        <_>
          <internalNodes>
            0 -1 52 -7.1064140647649765e-03</internalNodes>
          <leafValues>
            5.9250408411026001e-01 -3.0771756172180176e-01</leafValues></_>
        <_>
          <internalNodes>
            0 -1 152 -1.3428730890154839e-03</internalNodes>
          <leafValues>
            4.1867709159851074e-01 -3.0452942848205566e-01</leafValues></_>
        <_>
          <internalNodes>
            0 -1 64 1.3428885489702225e-02</internalNodes>
          <leafValues>
            -1.9143430888652802e-01 6.1439734697341919e-01</leafValues></_>
        <_>
          <internalNodes>
            0 -1 89 1.0734852403402328e-03</internalNodes>
          <leafValues>
            2.5155916810035706e-01 -4.8248890042304993e-01</leafValues></_>
        <_>
          <internalNodes>
            0 -1 104 -1.4565731398761272e-03</internalNodes>
          <leafValues>
            -6.0621494054794312e-01 2.0795507729053497e-01</leafValues></_>
        <_>
          <internalNodes>
            0 -1 78 -1.1831687763333321e-02</internalNodes>
          <leafValues>
            6.1485654115676880e-01 -1.8736517429351807e-01</leafValues></_>
        <_>
          <internalNodes>
            0 -1 155 -2.1598024759441614e-03</internalNodes>
          <leafValues>
            6.4401996135711670e-01 -2.1859830617904663e-01</leafValues></_>
        <_>
          <internalNodes>
            0 -1 66 -2.6256043463945389e-02</internalNodes>
          <leafValues>
            6.2364339828491211e-01 -1.7310322821140289e-01</leafValues></_>
        <_>
          <internalNodes>
            0 -1 160 -1.0790879605337977e-03</internalNodes>
          <leafValues>
            6.4168381690979004e-01 -1.7385563254356384e-01</leafValues></_>
        <_>
          <internalNodes>
            0 -1 157 6.3511403277516365e-03</internalNodes>
          <leafValues>
            -2.6619321107864380e-01 5.7387530803680420e-01</leafValues></_>
        <_>
          <internalNodes>
            0 -1 8 2.8645534068346024e-02</internalNodes>
          <leafValues>
            -1.3952390849590302e-01 7.7243918180465698e-01</leafValues></_>
        <_>
          <internalNodes>
            0 -1 56 5.7022208347916603e-03</internalNodes>
          <leafValues>
            3.4330317378044128e-01 -3.9852520823478699e-01</leafValues></_></weakClassifiers></_>
    <!-- stage 10 -->
    <_>
      <maxWeakCount>12</maxWeakCount>
      <stageThreshold>-1.2388405948877335e-01</stageThreshold>
      <weakClassifiers>
        <_>
          <internalNodes>
            0 -1 106 -4.2721987119875848e-04</internalNodes>
          <leafValues>
            -2.9133859276771545e-01 4.2995169758796692e-01</leafValues></_>
        <_>
          <internalNodes>
            0 -1 53 -2.1730135194957256e-03</internalNodes>
          <leafValues>
            7.5331163406372070e-01 -1.3470296561717987e-01</leafValues></_>
        <_>
          <internalNodes>
            0 -1 150 -1.1330130510032177e-03</internalNodes>
          <leafValues>
            3.4742930531501770e-01 -3.5316556692123413e-01</leafValues></_>
        <_>
          <internalNodes>
            0 -1 114 2.2220651153475046e-03</internalNodes>
          <leafValues>
            1.6685256361961365e-01 -8.3061999082565308e-01</leafValues></_>
        <_>
          <internalNodes>
            0 -1 54 -4.1367442463524640e-04</internalNodes>
          <leafValues>
            4.2125773429870605e-01 -2.6396051049232483e-01</leafValues></_>
        <_>
          <internalNodes>
            0 -1 120 -7.4444070924073458e-04</internalNodes>
          <leafValues>
            5.9527570009231567e-01 -2.0616170763969421e-01</leafValues></_>
        <_>
          <internalNodes>
            0 -1 115 -3.9139196276664734e-02</internalNodes>
          <leafValues>
            -8.5827642679214478e-01 1.5718068182468414e-01</leafValues></_>
        <_>
          <internalNodes>
            0 -1 16 -1.4944478869438171e-02</internalNodes>
          <leafValues>
            3.9257529377937317e-01 -3.5157847404479980e-01</leafValues></_>
        <_>
          <internalNodes>
            0 -1 99 -2.5082998909056187e-03</internalNodes>
          <leafValues>
            5.3518652915954590e-01 -2.0013535022735596e-01</leafValues></_>
        <_>
          <internalNodes>
            0 -1 100 7.5174556113779545e-03</internalNodes>
          <leafValues>
            -2.2257800400257111e-01 5.9160786867141724e-01</leafValues></_>
        <_>
          <internalNodes>
            0 -1 133 -1.3581555685959756e-04</internalNodes>
          <leafValues>
            3.8832533359527588e-01 -3.1265577673912048e-01</leafValues></_>
        <_>
          <internalNodes>
            0 -1 141 -5.4133422672748566e-03</internalNodes>
          <leafValues>
            5.7885682582855225e-01 -2.1874375641345978e-01</leafValues></_></weakClassifiers></_>
    <!-- stage 11 -->
    <_>
      <maxWeakCount>16</maxWeakCount>
      <stageThreshold>-2.2132262587547302e-01</stageThreshold>
      <weakClassifiers>
        <_>
          <internalNodes>
            0 -1 33 -9.0153358178213239e-04</internalNodes>
          <leafValues>
            6.2679427862167358e-01 3.0120482668280602e-02</leafValues></_>
        <_>
          <internalNodes>
            0 -1 146 -1.1179158464074135e-03</internalNodes>
          <leafValues>
            5.8038532733917236e-01 -1.4936929941177368e-01</leafValues></_>
        <_>
          <internalNodes>
            0 -1 20 4.2014271020889282e-03</internalNodes>
          <leafValues>
            -2.3393701016902924e-01 3.9700293540954590e-01</leafValues></_>
        <_>
          <internalNodes>
            0 -1 165 -8.5957275587134063e-05</internalNodes>
          <leafValues>
            3.7884092330932617e-01 -2.9986116290092468e-01</leafValues></_>
        <_>
          <internalNodes>
            0 -1 109 -3.5494863986968994e-02</internalNodes>
          <leafValues>
            -9.0333414077758789e-01 8.9537300169467926e-02</leafValues></_>
        <_>
          <internalNodes>
            0 -1 92 2.5972245261073112e-02</internalNodes>
          <leafValues>
            -1.5510269999504089e-01 5.9777981042861938e-01</leafValues></_>
        <_>
          <internalNodes>
            0 -1 134 -3.9006711449474096e-04</internalNodes>
          <leafValues>
            -5.2974766492843628e-01 2.2473359107971191e-01</leafValues></_>
        <_>
          <internalNodes>
            0 -1 87 -3.6094739334657788e-04</internalNodes>
          <leafValues>
            3.3325931429862976e-01 -3.1491595506668091e-01</leafValues></_>
        <_>
          <internalNodes>
            0 -1 17 -1.7513852799311280e-03</internalNodes>
          <leafValues>
            3.9816018939018250e-01 -2.9593497514724731e-01</leafValues></_>
        <_>
          <internalNodes>
            0 -1 127 -5.1045771688222885e-03</internalNodes>
          <leafValues>
            -9.0712159872055054e-01 1.7882563173770905e-01</leafValues></_>
        <_>
          <internalNodes>
            0 -1 74 -9.8009943030774593e-04</internalNodes>
          <leafValues>
            3.1103774905204773e-01 -3.8553318381309509e-01</leafValues></_>
        <_>
          <internalNodes>
            0 -1 9 1.6334083629772067e-03</internalNodes>
          <leafValues>
            1.5243507921695709e-01 -9.5446038246154785e-01</leafValues></_>
        <_>
          <internalNodes>
            0 -1 31 2.1043948829174042e-02</internalNodes>
          <leafValues>
            -1.8272529542446136e-01 7.6261687278747559e-01</leafValues></_>
        <_>
          <internalNodes>
            0 -1 57 1.7443730030208826e-03</internalNodes>
          <leafValues>
            -2.7969267964363098e-01 4.0774872899055481e-01</leafValues></_>
        <_>
          <internalNodes>
            0 -1 84 5.8468396309763193e-04</internalNodes>
          <leafValues>
            2.8752920031547546e-01 -4.7087356448173523e-01</leafValues></_>
        <_>
          <internalNodes>
            0 -1 55 1.8975859507918358e-02</internalNodes>
          <leafValues>
            1.7274641990661621e-01 -7.3936504125595093e-01</leafValues></_></weakClassifiers></_>
    <!-- stage 12 -->
    <_>
      <maxWeakCount>15</maxWeakCount>
      <stageThreshold>-2.4451082944869995e-01</stageThreshold>
      <weakClassifiers>
        <_>
          <internalNodes>
            0 -1 73 1.7323937267065048e-02</internalNodes>
          <leafValues>
            -1.0091742873191833e-01 5.0464397668838501e-01</leafValues></_>
        <_>
          <internalNodes>
            0 -1 75 -8.1603182479739189e-04</internalNodes>
          <leafValues>
            3.4143748879432678e-01 -2.8081509470939636e-01</leafValues></_>
        <_>
          <internalNodes>
            0 -1 147 -3.0262907966971397e-03</internalNodes>
          <leafValues>
            6.7455732822418213e-01 -1.3290551304817200e-01</leafValues></_>
        <_>
          <internalNodes>
            0 -1 163 -2.8741190908476710e-04</internalNodes>
          <leafValues>
            -4.5941674709320068e-01 1.9159251451492310e-01</leafValues></_>
        <_>
          <internalNodes>
            0 -1 45 -7.2705873753875494e-04</internalNodes>
          <leafValues>
            -5.3419733047485352e-01 2.0960602164268494e-01</leafValues></_>
        <_>
          <internalNodes>
            0 -1 29 6.3183844089508057e-02</internalNodes>
          <leafValues>
            -1.5200918912887573e-01 8.9105451107025146e-01</leafValues></_>
        <_>
          <internalNodes>
            0 -1 27 -2.9733877163380384e-03</internalNodes>
          <leafValues>
            5.5358338356018066e-01 -1.3816940784454346e-01</leafValues></_>
        <_>
          <internalNodes>
            0 -1 27 1.1964816600084305e-02</internalNodes>
          <leafValues>
            -2.5816160440444946e-01 5.4717051982879639e-01</leafValues></_>
        <_>
          <internalNodes>
            0 -1 85 4.1379898786544800e-02</internalNodes>
          <leafValues>
            -1.9864895939826965e-01 5.9012442827224731e-01</leafValues></_>
        <_>
          <internalNodes>
            0 -1 161 -4.4069509021937847e-03</internalNodes>
          <leafValues>
            5.9240722656250000e-01 -2.0229300856590271e-01</leafValues></_>
        <_>
          <internalNodes>
            0 -1 162 2.9728584922850132e-03</internalNodes>
          <leafValues>
            2.4421668052673340e-01 -5.7996892929077148e-01</leafValues></_>
        <_>
          <internalNodes>
            0 -1 110 -1.0255745146423578e-03</internalNodes>
          <leafValues>
            6.7711377143859863e-01 -2.0060120522975922e-01</leafValues></_>
        <_>
          <internalNodes>
            0 -1 96 4.0423106402158737e-03</internalNodes>
          <leafValues>
            1.8888075649738312e-01 -6.7812126874923706e-01</leafValues></_>
        <_>
          <internalNodes>
            0 -1 156 4.1239906102418900e-02</internalNodes>
          <leafValues>
            -2.2871622443199158e-01 5.3796613216400146e-01</leafValues></_>
        <_>
          <internalNodes>
            0 -1 130 -1.8465030007064342e-03</internalNodes>
          <leafValues>
            -3.9458751678466797e-01 3.2437181472778320e-01</leafValues></_></weakClassifiers></_></stages>
  <features>
    <_>
      <rects>
        <_>
          0 0 15 2 -1.</_>
        <_>
          5 0 5 2 3.</_></rects>
      <tilted>0</tilted></_>
    <_>
      <rects>
        <_>
          0 1 20 6 -1.</_>
        <_>
          10 1 10 6 2.</_></rects>
      <tilted>0</tilted></_>
    <_>
      <rects>
        <_>
          0 4 21 6 -1.</_>
        <_>
          0 6 21 2 3.</_></rects>
      <tilted>0</tilted></_>
    <_>
      <rects>
        <_>
          0 7 24 6 -1.</_>
        <_>
          0 9 24 2 3.</_></rects>
      <tilted>0</tilted></_>
    <_>
      <rects>
        <_>
          0 8 12 5 -1.</_>
        <_>
          4 8 4 5 3.</_></rects>
      <tilted>0</tilted></_>
    <_>
      <rects>
        <_>
          0 8 8 3 -1.</_>
        <_>
          0 9 8 1 3.</_></rects>
      <tilted>0</tilted></_>
    <_>
      <rects>
        <_>
          0 8 17 14 -1.</_>
        <_>
          0 15 17 7 2.</_></rects>
      <tilted>0</tilted></_>
    <_>
      <rects>
        <_>
          0 12 24 12 -1.</_>
        <_>
          0 18 24 6 2.</_></rects>
      <tilted>0</tilted></_>
    <_>
      <rects>
        <_>
          0 15 12 8 -1.</_>
        <_>
          0 15 6 4 2.</_>
        <_>
          6 19 6 4 2.</_></rects>
      <tilted>0</tilted></_>
    <_>
      <rects>
        <_>
          0 21 2 3 -1.</_>
        <_>
          0 22 2 1 3.</_></rects>
      <tilted>0</tilted></_>
    <_>
      <rects>
        <_>
          1 1 9 4 -1.</_>
        <_>
          4 1 3 4 3.</_></rects>
      <tilted>0</tilted></_>
    <_>
      <rects>
        <_>
          1 1 7 3 -1.</_>
        <_>
          1 2 7 1 3.</_></rects>
      <tilted>0</tilted></_>
    <_>
      <rects>
        <_>
          1 2 11 6 -1.</_>
        <_>
          1 4 11 2 3.</_></rects>
      <tilted>0</tilted></_>
    <_>
      <rects>
        <_>
          1 3 3 8 -1.</_>
        <_>
          2 3 1 8 3.</_></rects>
      <tilted>0</tilted></_>
    <_>
      <rects>
        <_>
          1 3 5 9 -1.</_>
        <_>
          1 6 5 3 3.</_></rects>
      <tilted>0</tilted></_>
    <_>
      <rects>
        <_>
          1 4 3 5 -1.</_>
        <_>
          2 4 1 5 3.</_></rects>
      <tilted>0</tilted></_>
    <_>
      <rects>
        <_>
          1 11 9 5 -1.</_>
        <_>
          4 11 3 5 3.</_></rects>
      <tilted>0</tilted></_>
    <_>
      <rects>
        <_>
          1 14 9 6 -1.</_>
        <_>
          1 16 9 2 3.</_></rects>
      <tilted>0</tilted></_>
    <_>
      <rects>
        <_>
          2 0 12 20 -1.</_>
        <_>
          2 0 6 10 2.</_>
        <_>
          8 10 6 10 2.</_></rects>
      <tilted>0</tilted></_>
    <_>
      <rects>
        <_>
          2 0 18 6 -1.</_>
        <_>
          2 2 18 2 3.</_></rects>
      <tilted>0</tilted></_>
    <_>
      <rects>
        <_>
          2 1 2 18 -1.</_>
        <_>
          2 1 1 9 2.</_>
        <_>
          3 10 1 9 2.</_></rects>
      <tilted>0</tilted></_>
    <_>
      <rects>
        <_>
          2 1 6 3 -1.</_>
        <_>
          2 2 6 1 3.</_></rects>
      <tilted>0</tilted></_>
    <_>
      <rects>
        <_>
          2 3 7 9 -1.</_>
        <_>
          2 6 7 3 3.</_></rects>
      <tilted>0</tilted></_>
    <_>
      <rects>
        <_>
          2 5 14 3 -1.</_>
        <_>
          2 6 14 1 3.</_></rects>
      <tilted>0</tilted></_>
    <_>
      <rects>
        <_>
          2 6 22 12 -1.</_>
        <_>
          2 12 22 6 2.</_></rects>
      <tilted>0</tilted></_>
    <_>
      <rects>
        <_>
          2 7 2 4 -1.</_>
        <_>
          2 7 1 2 2.</_>
        <_>
          3 9 1 2 2.</_></rects>
      <tilted>0</tilted></_>
    <_>
      <rects>
        <_>
          2 7 3 11 -1.</_>
        <_>
          3 7 1 11 3.</_></rects>
      <tilted>0</tilted></_>
    <_>
      <rects>
        <_>
          2 7 22 3 -1.</_>
        <_>
          2 8 22 1 3.</_></rects>
      <tilted>0</tilted></_>
    <_>
      <rects>
        <_>
          2 10 9 3 -1.</_>
        <_>
          2 11 9 1 3.</_></rects>
      <tilted>0</tilted></_>
    <_>
      <rects>
        <_>
          3 1 9 11 -1.</_>
        <_>
          6 1 3 11 3.</_></rects>
      <tilted>0</tilted></_>
    <_>
      <rects>
        <_>
          3 1 6 6 -1.</_>
        <_>
          3 3 6 2 3.</_></rects>
      <tilted>0</tilted></_>
    <_>
      <rects>
        <_>
          3 1 6 9 -1.</_>
        <_>
          3 4 6 3 3.</_></rects>
      <tilted>0</tilted></_>
    <_>
      <rects>
        <_>
          3 1 12 8 -1.</_>
        <_>
          9 1 6 8 2.</_></rects>
      <tilted>0</tilted></_>
    <_>
      <rects>
        <_>
          3 2 2 3 -1.</_>
        <_>
          3 3 2 1 3.</_></rects>
      <tilted>0</tilted></_>
    <_>
      <rects>
        <_>
          3 2 4 3 -1.</_>
        <_>
          3 3 4 1 3.</_></rects>
      <tilted>0</tilted></_>
    <_>
      <rects>
        <_>
          3 3 18 17 -1.</_>
        <_>
          9 3 6 17 3.</_></rects>
      <tilted>0</tilted></_>
    <_>
      <rects>
        <_>
          3 3 17 9 -1.</_>
        <_>
          3 6 17 3 3.</_></rects>
      <tilted>0</tilted></_>
    <_>
      <rects>
        <_>
          3 5 4 12 -1.</_>
        <_>
          3 11 4 6 2.</_></rects>
      <tilted>0</tilted></_>
    <_>
      <rects>
        <_>
          3 5 7 6 -1.</_>
        <_>
          3 7 7 2 3.</_></rects>
      <tilted>0</tilted></_>
    <_>
      <rects>
        <_>
          3 5 19 9 -1.</_>
        <_>
          3 8 19 3 3.</_></rects>
      <tilted>0</tilted></_>
    <_>
      <rects>
        <_>
          3 5 20 12 -1.</_>
        <_>
          3 9 20 4 3.</_></rects>
      <tilted>0</tilted></_>
    <_>
      <rects>
        <_>
          3 6 6 2 -1.</_>
        <_>
          5 6 2 2 3.</_></rects>
      <tilted>0</tilted></_>
    <_>
      <rects>
        <_>
          3 7 2 2 -1.</_>
        <_>
          3 7 1 1 2.</_>
        <_>
          4 8 1 1 2.</_></rects>
      <tilted>0</tilted></_>
    <_>
      <rects>
        <_>
          3 7 16 2 -1.</_>
        <_>
          3 8 16 1 2.</_></rects>
      <tilted>0</tilted></_>
    <_>
      <rects>
        <_>
          3 11 1 3 -1.</_>
        <_>
          3 12 1 1 3.</_></rects>
      <tilted>0</tilted></_>
    <_>
      <rects>
        <_>
          3 19 2 4 -1.</_>
        <_>
          3 19 1 2 2.</_>
        <_>
          4 21 1 2 2.</_></rects>
      <tilted>0</tilted></_>
    <_>
      <rects>
        <_>
          4 0 3 3 -1.</_>
        <_>
          4 1 3 1 3.</_></rects>
      <tilted>0</tilted></_>
    <_>
      <rects>
        <_>
          4 0 8 5 -1.</_>
        <_>
          8 0 4 5 2.</_></rects>
      <tilted>0</tilted></_>
    <_>
      <rects>
        <_>
          4 1 3 6 -1.</_>
        <_>
          4 3 3 2 3.</_></rects>
      <tilted>0</tilted></_>
    <_>
      <rects>
        <_>
          4 2 4 3 -1.</_>
        <_>
          4 3 4 1 3.</_></rects>
      <tilted>0</tilted></_>
    <_>
      <rects>
        <_>
          4 2 10 4 -1.</_>
        <_>
          9 2 5 4 2.</_></rects>
      <tilted>0</tilted></_>
    <_>
      <rects>
        <_>
          4 4 4 4 -1.</_>
        <_>
          4 6 4 2 2.</_></rects>
      <tilted>0</tilted></_>
    <_>
      <rects>
        <_>
          4 7 3 6 -1.</_>
        <_>
          4 9 3 2 3.</_></rects>
      <tilted>0</tilted></_>
    <_>
      <rects>
        <_>
          4 11 2 3 -1.</_>
        <_>
          4 12 2 1 3.</_></rects>
      <tilted>0</tilted></_>
    <_>
      <rects>
        <_>
          4 12 5 3 -1.</_>
        <_>
          4 13 5 1 3.</_></rects>
      <tilted>0</tilted></_>
    <_>
      <rects>
        <_>
          4 14 14 6 -1.</_>
        <_>
          4 14 7 3 2.</_>
        <_>
          11 17 7 3 2.</_></rects>
      <tilted>0</tilted></_>
    <_>
      <rects>
        <_>
          4 14 18 2 -1.</_>
        <_>
          13 14 9 2 2.</_></rects>
      <tilted>0</tilted></_>
    <_>
      <rects>
        <_>
          5 0 18 2 -1.</_>
        <_>
          5 1 18 1 2.</_></rects>
      <tilted>0</tilted></_>
    <_>
      <rects>
        <_>
          5 1 9 3 -1.</_>
        <_>
          5 2 9 1 3.</_></rects>
      <tilted>0</tilted></_>
    <_>
      <rects>
        <_>
          5 1 12 9 -1.</_>
        <_>
          5 4 12 3 3.</_></rects>
      <tilted>0</tilted></_>
    <_>
      <rects>
        <_>
          5 2 2 3 -1.</_>
        <_>
          5 3 2 1 3.</_></rects>
      <tilted>0</tilted></_>
    <_>
      <rects>
        <_>
          5 2 6 8 -1.</_>
        <_>
          7 2 2 8 3.</_></rects>
      <tilted>0</tilted></_>
    <_>
      <rects>
        <_>
          5 2 3 3 -1.</_>
        <_>
          5 3 3 1 3.</_></rects>
      <tilted>0</tilted></_>
    <_>
      <rects>
        <_>
          5 3 2 3 -1.</_>
        <_>
          5 4 2 1 3.</_></rects>
      <tilted>0</tilted></_>
    <_>
      <rects>
        <_>
          5 3 6 2 -1.</_>
        <_>
          8 3 3 2 2.</_></rects>
      <tilted>0</tilted></_>
    <_>
      <rects>
        <_>
          5 3 9 5 -1.</_>
        <_>
          8 3 3 5 3.</_></rects>
      <tilted>0</tilted></_>
    <_>
      <rects>
        <_>
          5 3 5 18 -1.</_>
        <_>
          5 9 5 6 3.</_></rects>
      <tilted>0</tilted></_>
    <_>
      <rects>
        <_>
          5 8 2 9 -1.</_>
        <_>
          5 11 2 3 3.</_></rects>
      <tilted>0</tilted></_>
    <_>
      <rects>
        <_>
          5 8 3 9 -1.</_>
        <_>
          5 11 3 3 3.</_></rects>
      <tilted>0</tilted></_>
    <_>
      <rects>
        <_>
          5 8 16 6 -1.</_>
        <_>
          5 10 16 2 3.</_></rects>
      <tilted>0</tilted></_>
    <_>
      <rects>
        <_>
          5 9 2 8 -1.</_>
        <_>
          6 9 1 8 2.</_></rects>
      <tilted>0</tilted></_>
    <_>
      <rects>
        <_>
          5 16 8 2 -1.</_>
        <_>
          5 16 4 1 2.</_>
        <_>
          9 17 4 1 2.</_></rects>
      <tilted>0</tilted></_>
    <_>
      <rects>
        <_>
          5 16 18 2 -1.</_>
        <_>
          5 17 18 1 2.</_></rects>
      <tilted>0</tilted></_>
    <_>
      <rects>
        <_>
          6 1 4 15 -1.</_>
        <_>
          8 1 2 15 2.</_></rects>
      <tilted>0</tilted></_>
    <_>
      <rects>
        <_>
          6 3 4 3 -1.</_>
        <_>
          6 4 4 1 3.</_></rects>
      <tilted>0</tilted></_>
    <_>
      <rects>
        <_>
          6 3 11 3 -1.</_>
        <_>
          6 4 11 1 3.</_></rects>
      <tilted>0</tilted></_>
    <_>
      <rects>
        <_>
          6 3 16 9 -1.</_>
        <_>
          6 6 16 3 3.</_></rects>
      <tilted>0</tilted></_>
    <_>
      <rects>
        <_>
          6 8 1 3 -1.</_>
        <_>
          6 9 1 1 3.</_></rects>
      <tilted>0</tilted></_>
    <_>
      <rects>
        <_>
          6 8 10 4 -1.</_>
        <_>
          11 8 5 4 2.</_></rects>
      <tilted>0</tilted></_>
    <_>
      <rects>
        <_>
          6 9 5 9 -1.</_>
        <_>
          6 12 5 3 3.</_></rects>
      <tilted>0</tilted></_>
    <_>
      <rects>
        <_>
          6 10 15 7 -1.</_>
        <_>
          11 10 5 7 3.</_></rects>
      <tilted>0</tilted></_>
    <_>
      <rects>
        <_>
          7 1 4 4 -1.</_>
        <_>
          9 1 2 4 2.</_></rects>
      <tilted>0</tilted></_>
    <_>
      <rects>
        <_>
          7 1 4 11 -1.</_>
        <_>
          9 1 2 11 2.</_></rects>
      <tilted>0</tilted></_>
    <_>
      <rects>
        <_>
          7 3 14 1 -1.</_>
        <_>
          14 3 7 1 2.</_></rects>
      <tilted>0</tilted></_>
    <_>
      <rects>
        <_>
          7 5 6 3 -1.</_>
        <_>
          7 6 6 1 3.</_></rects>
      <tilted>0</tilted></_>
    <_>
      <rects>
        <_>
          7 8 12 3 -1.</_>
        <_>
          11 8 4 3 3.</_></rects>
      <tilted>0</tilted></_>
    <_>
      <rects>
        <_>
          7 12 3 12 -1.</_>
        <_>
          8 12 1 12 3.</_></rects>
      <tilted>0</tilted></_>
    <_>
      <rects>
        <_>
          7 16 2 2 -1.</_>
        <_>
          7 17 2 1 2.</_></rects>
      <tilted>0</tilted></_>
    <_>
      <rects>
        <_>
          8 0 3 3 -1.</_>
        <_>
          9 0 1 3 3.</_></rects>
      <tilted>0</tilted></_>
    <_>
      <rects>
        <_>
          8 0 2 8 -1.</_>
        <_>
          8 4 2 4 2.</_></rects>
      <tilted>0</tilted></_>
    <_>
      <rects>
        <_>
          8 1 9 15 -1.</_>
        <_>
          11 1 3 15 3.</_></rects>
      <tilted>0</tilted></_>
    <_>
      <rects>
        <_>
          8 3 9 8 -1.</_>
        <_>
          11 3 3 8 3.</_></rects>
      <tilted>0</tilted></_>
    <_>
      <rects>
        <_>
          8 4 6 6 -1.</_>
        <_>
          10 4 2 6 3.</_></rects>
      <tilted>0</tilted></_>
    <_>
      <rects>
        <_>
          8 5 8 8 -1.</_>
        <_>
          8 5 4 4 2.</_>
        <_>
          12 9 4 4 2.</_></rects>
      <tilted>0</tilted></_>
    <_>
      <rects>
        <_>
          8 12 3 9 -1.</_>
        <_>
          8 15 3 3 3.</_></rects>
      <tilted>0</tilted></_>
    <_>
      <rects>
        <_>
          8 15 3 9 -1.</_>
        <_>
          8 18 3 3 3.</_></rects>
      <tilted>0</tilted></_>
    <_>
      <rects>
        <_>
          8 16 3 5 -1.</_>
        <_>
          9 16 1 5 3.</_></rects>
      <tilted>0</tilted></_>
    <_>
      <rects>
        <_>
          8 21 16 3 -1.</_>
        <_>
          8 22 16 1 3.</_></rects>
      <tilted>0</tilted></_>
    <_>
      <rects>
        <_>
          9 0 5 24 -1.</_>
        <_>
          9 12 5 12 2.</_></rects>
      <tilted>0</tilted></_>
    <_>
      <rects>
        <_>
          9 3 3 6 -1.</_>
        <_>
          10 3 1 6 3.</_></rects>
      <tilted>0</tilted></_>
    <_>
      <rects>
        <_>
          9 4 3 6 -1.</_>
        <_>
          10 4 1 6 3.</_></rects>
      <tilted>0</tilted></_>
    <_>
      <rects>
        <_>
          9 6 2 2 -1.</_>
        <_>
          9 6 1 1 2.</_>
        <_>
          10 7 1 1 2.</_></rects>
      <tilted>0</tilted></_>
    <_>
      <rects>
        <_>
          9 11 6 6 -1.</_>
        <_>
          9 11 3 3 2.</_>
        <_>
          12 14 3 3 2.</_></rects>
      <tilted>0</tilted></_>
    <_>
      <rects>
        <_>
          9 13 3 3 -1.</_>
        <_>
          9 14 3 1 3.</_></rects>
      <tilted>0</tilted></_>
    <_>
      <rects>
        <_>
          9 15 4 1 -1.</_>
        <_>
          11 15 2 1 2.</_></rects>
      <tilted>0</tilted></_>
    <_>
      <rects>
        <_>
          10 0 6 2 -1.</_>
        <_>
          12 0 2 2 3.</_></rects>
      <tilted>0</tilted></_>
    <_>
      <rects>
        <_>
          10 0 6 3 -1.</_>
        <_>
          12 0 2 3 3.</_></rects>
      <tilted>0</tilted></_>
    <_>
      <rects>
        <_>
          10 2 8 4 -1.</_>
        <_>
          10 4 8 2 2.</_></rects>
      <tilted>0</tilted></_>
    <_>
      <rects>
        <_>
          10 4 2 3 -1.</_>
        <_>
          10 5 2 1 3.</_></rects>
      <tilted>0</tilted></_>
    <_>
      <rects>
        <_>
          10 6 4 16 -1.</_>
        <_>
          10 14 4 8 2.</_></rects>
      <tilted>0</tilted></_>
    <_>
      <rects>
        <_>
          10 7 3 1 -1.</_>
        <_>
          11 7 1 1 3.</_></rects>
      <tilted>0</tilted></_>
    <_>
      <rects>
        <_>
          10 9 3 6 -1.</_>
        <_>
          10 12 3 3 2.</_></rects>
      <tilted>0</tilted></_>
    <_>
      <rects>
        <_>
          10 10 3 1 -1.</_>
        <_>
          11 10 1 1 3.</_></rects>
      <tilted>0</tilted></_>
    <_>
      <rects>
        <_>
          11 0 1 4 -1.</_>
        <_>
          11 2 1 2 2.</_></rects>
      <tilted>0</tilted></_>
    <_>
      <rects>
        <_>
          11 0 3 2 -1.</_>
        <_>
          12 0 1 2 3.</_></rects>
      <tilted>0</tilted></_>
    <_>
      <rects>
        <_>
          11 0 3 18 -1.</_>
        <_>
          11 9 3 9 2.</_></rects>
      <tilted>0</tilted></_>
    <_>
      <rects>
        <_>
          11 5 11 6 -1.</_>
        <_>
          11 8 11 3 2.</_></rects>
      <tilted>0</tilted></_>
    <_>
      <rects>
        <_>
          11 5 13 9 -1.</_>
        <_>
          11 8 13 3 3.</_></rects>
      <tilted>0</tilted></_>
    <_>
      <rects>
        <_>
          11 7 4 8 -1.</_>
        <_>
          11 7 2 4 2.</_>
        <_>
          13 11 2 4 2.</_></rects>
      <tilted>0</tilted></_>
    <_>
      <rects>
        <_>
          11 7 8 6 -1.</_>
        <_>
          11 9 8 2 3.</_></rects>
      <tilted>0</tilted></_>
    <_>
      <rects>
        <_>
          11 8 1 3 -1.</_>
        <_>
          11 9 1 1 3.</_></rects>
      <tilted>0</tilted></_>
    <_>
      <rects>
        <_>
          12 1 11 6 -1.</_>
        <_>
          12 3 11 2 3.</_></rects>
      <tilted>0</tilted></_>
    <_>
      <rects>
        <_>
          12 2 4 22 -1.</_>
        <_>
          14 2 2 22 2.</_></rects>
      <tilted>0</tilted></_>
    <_>
      <rects>
        <_>
          12 4 3 11 -1.</_>
        <_>
          13 4 1 11 3.</_></rects>
      <tilted>0</tilted></_>
    <_>
      <rects>
        <_>
          12 6 3 3 -1.</_>
        <_>
          12 7 3 1 3.</_></rects>
      <tilted>0</tilted></_>
    <_>
      <rects>
        <_>
          12 7 3 9 -1.</_>
        <_>
          12 10 3 3 3.</_></rects>
      <tilted>0</tilted></_>
    <_>
      <rects>
        <_>
          12 10 8 5 -1.</_>
        <_>
          16 10 4 5 2.</_></rects>
      <tilted>0</tilted></_>
    <_>
      <rects>
        <_>
          12 15 1 6 -1.</_>
        <_>
          12 18 1 3 2.</_></rects>
      <tilted>0</tilted></_>
    <_>
      <rects>
        <_>
          13 0 1 4 -1.</_>
        <_>
          13 2 1 2 2.</_></rects>
      <tilted>0</tilted></_>
    <_>
      <rects>
        <_>
          13 2 11 9 -1.</_>
        <_>
          13 5 11 3 3.</_></rects>
      <tilted>0</tilted></_>
    <_>
      <rects>
        <_>
          13 7 8 1 -1.</_>
        <_>
          17 7 4 1 2.</_></rects>
      <tilted>0</tilted></_>
    <_>
      <rects>
        <_>
          13 8 3 3 -1.</_>
        <_>
          14 8 1 3 3.</_></rects>
      <tilted>0</tilted></_>
    <_>
      <rects>
        <_>
          13 9 3 2 -1.</_>
        <_>
          14 9 1 2 3.</_></rects>
      <tilted>0</tilted></_>
    <_>
      <rects>
        <_>
          13 9 2 3 -1.</_>
        <_>
          13 10 2 1 3.</_></rects>
      <tilted>0</tilted></_>
    <_>
      <rects>
        <_>
          13 21 2 1 -1.</_>
        <_>
          14 21 1 1 2.</_></rects>
      <tilted>0</tilted></_>
    <_>
      <rects>
        <_>
          14 2 1 3 -1.</_>
        <_>
          14 3 1 1 3.</_></rects>
      <tilted>0</tilted></_>
    <_>
      <rects>
        <_>
          14 3 1 2 -1.</_>
        <_>
          14 4 1 1 2.</_></rects>
      <tilted>0</tilted></_>
    <_>
      <rects>
        <_>
          14 4 9 9 -1.</_>
        <_>
          14 7 9 3 3.</_></rects>
      <tilted>0</tilted></_>
    <_>
      <rects>
        <_>
          14 6 9 2 -1.</_>
        <_>
          14 7 9 1 2.</_></rects>
      <tilted>0</tilted></_>
    <_>
      <rects>
        <_>
          14 8 10 6 -1.</_>
        <_>
          14 10 10 2 3.</_></rects>
      <tilted>0</tilted></_>
    <_>
      <rects>
        <_>
          14 10 6 2 -1.</_>
        <_>
          16 10 2 2 3.</_></rects>
      <tilted>0</tilted></_>
    <_>
      <rects>
        <_>
          14 15 4 6 -1.</_>
        <_>
          14 17 4 2 3.</_></rects>
      <tilted>0</tilted></_>
    <_>
      <rects>
        <_>
          14 20 6 2 -1.</_>
        <_>
          14 21 6 1 2.</_></rects>
      <tilted>0</tilted></_>
    <_>
      <rects>
        <_>
          15 2 4 2 -1.</_>
        <_>
          15 2 2 1 2.</_>
        <_>
          17 3 2 1 2.</_></rects>
      <tilted>0</tilted></_>
    <_>
      <rects>
        <_>
          15 7 1 6 -1.</_>
        <_>
          15 9 1 2 3.</_></rects>
      <tilted>0</tilted></_>
    <_>
      <rects>
        <_>
          15 8 1 2 -1.</_>
        <_>
          15 9 1 1 2.</_></rects>
      <tilted>0</tilted></_>
    <_>
      <rects>
        <_>
          15 8 1 3 -1.</_>
        <_>
          15 9 1 1 3.</_></rects>
      <tilted>0</tilted></_>
    <_>
      <rects>
        <_>
          15 10 3 3 -1.</_>
        <_>
          15 11 3 1 3.</_></rects>
      <tilted>0</tilted></_>
    <_>
      <rects>
        <_>
          16 12 7 3 -1.</_>
        <_>
          16 13 7 1 3.</_></rects>
      <tilted>0</tilted></_>
    <_>
      <rects>
        <_>
          16 19 6 4 -1.</_>
        <_>
          16 19 3 2 2.</_>
        <_>
          19 21 3 2 2.</_></rects>
      <tilted>0</tilted></_>
    <_>
      <rects>
        <_>
          17 4 1 6 -1.</_>
        <_>
          17 6 1 2 3.</_></rects>
      <tilted>0</tilted></_>
    <_>
      <rects>
        <_>
          17 5 5 9 -1.</_>
        <_>
          17 8 5 3 3.</_></rects>
      <tilted>0</tilted></_>
    <_>
      <rects>
        <_>
          17 9 3 4 -1.</_>
        <_>
          18 9 1 4 3.</_></rects>
      <tilted>0</tilted></_>
    <_>
      <rects>
        <_>
          17 10 1 3 -1.</_>
        <_>
          17 11 1 1 3.</_></rects>
      <tilted>0</tilted></_>
    <_>
      <rects>
        <_>
          17 17 4 3 -1.</_>
        <_>
          17 18 4 1 3.</_></rects>
      <tilted>0</tilted></_>
    <_>
      <rects>
        <_>
          18 2 6 3 -1.</_>
        <_>
          18 3 6 1 3.</_></rects>
      <tilted>0</tilted></_>
    <_>
      <rects>
        <_>
          18 3 6 18 -1.</_>
        <_>
          21 3 3 18 2.</_></rects>
      <tilted>0</tilted></_>
    <_>
      <rects>
        <_>
          19 0 4 6 -1.</_>
        <_>
          19 2 4 2 3.</_></rects>
      <tilted>0</tilted></_>
    <_>
      <rects>
        <_>
          19 7 3 9 -1.</_>
        <_>
          19 10 3 3 3.</_></rects>
      <tilted>0</tilted></_>
    <_>
      <rects>
        <_>
          20 0 3 3 -1.</_>
        <_>
          20 1 3 1 3.</_></rects>
      <tilted>0</tilted></_>
    <_>
      <rects>
        <_>
          20 1 3 3 -1.</_>
        <_>
          20 2 3 1 3.</_></rects>
      <tilted>0</tilted></_>
    <_>
      <rects>
        <_>
          20 2 3 8 -1.</_>
        <_>
          21 2 1 8 3.</_></rects>
      <tilted>0</tilted></_>
    <_>
      <rects>
        <_>
          21 12 2 8 -1.</_>
        <_>
          22 12 1 8 2.</_></rects>
      <tilted>0</tilted></_>
    <_>
      <rects>
        <_>
          21 17 3 2 -1.</_>
        <_>
          21 18 3 1 2.</_></rects>
      <tilted>0</tilted></_>
    <_>
      <rects>
        <_>
          22 3 1 3 -1.</_>
        <_>
          22 4 1 1 3.</_></rects>
      <tilted>0</tilted></_>
    <_>
      <rects>
        <_>
          23 15 1 3 -1.</_>
        <_>
          23 16 1 1 3.</_></rects>
      <tilted>0</tilted></_></features></cascade>
</opencv_storage>
